<Nnet> 
<Splice> 400 400
[ 0 ]
<AddShift> 400 400
<LearnRateCoef> 0 [ -9.779496 -10.17968 -11.04767 -11.74731 -12.45807 -13.01676 -13.38614 -13.53106 -13.63347 -13.54875 -13.64929 -13.74808 -13.99678 -14.17873 -14.22228 -14.2559 -14.22717 -14.15447 -14.2799 -14.09589 -13.94303 -14.125 -13.88888 -13.98882 -13.89508 -13.96625 -13.85131 -13.92239 -13.89101 -13.89632 -13.91906 -13.92846 -13.96165 -14.0238 -14.07646 -14.13894 -14.18006 -14.1989 -14.23782 -14.1618 -14.21031 -14.15769 -14.23065 -14.22876 -14.29921 -14.39304 -14.4983 -14.59453 -14.69442 -14.84121 -14.88892 -14.91286 -14.96963 -15.04683 -15.05349 -15.10239 -15.12843 -15.15369 -15.13995 -15.08053 -14.94418 -14.81066 -14.7258 -14.63319 -14.52988 -14.43472 -14.35868 -14.3162 -14.27607 -14.22714 -14.17327 -14.14497 -14.11783 -14.08898 -14.05862 -14.00302 -13.89603 -13.5968 -13.01556 -12.29613 -9.779496 -10.17968 -11.04767 -11.74731 -12.45807 -13.01676 -13.38614 -13.53106 -13.63347 -13.54875 -13.64929 -13.74808 -13.99678 -14.17873 -14.22228 -14.2559 -14.22717 -14.15447 -14.2799 -14.09589 -13.94303 -14.125 -13.88888 -13.98882 -13.89508 -13.96625 -13.85131 -13.92239 -13.89101 -13.89632 -13.91906 -13.92846 -13.96165 -14.0238 -14.07646 -14.13894 -14.18006 -14.1989 -14.23782 -14.1618 -14.21031 -14.15769 -14.23065 -14.22876 -14.29921 -14.39304 -14.4983 -14.59453 -14.69442 -14.84121 -14.88892 -14.91286 -14.96963 -15.04683 -15.05349 -15.10239 -15.12843 -15.15369 -15.13995 -15.08053 -14.94418 -14.81066 -14.7258 -14.63319 -14.52988 -14.43472 -14.35868 -14.3162 -14.27607 -14.22714 -14.17327 -14.14497 -14.11783 -14.08898 -14.05862 -14.00302 -13.89603 -13.5968 -13.01556 -12.29613 -9.779496 -10.17968 -11.04767 -11.74731 -12.45807 -13.01676 -13.38614 -13.53106 -13.63347 -13.54875 -13.64929 -13.74808 -13.99678 -14.17873 -14.22228 -14.2559 -14.22717 -14.15447 -14.2799 -14.09589 -13.94303 -14.125 -13.88888 -13.98882 -13.89508 -13.96625 -13.85131 -13.92239 -13.89101 -13.89632 -13.91906 -13.92846 -13.96165 -14.0238 -14.07646 -14.13894 -14.18006 -14.1989 -14.23782 -14.1618 -14.21031 -14.15769 -14.23065 -14.22876 -14.29921 -14.39304 -14.4983 -14.59453 -14.69442 -14.84121 -14.88892 -14.91286 -14.96963 -15.04683 -15.05349 -15.10239 -15.12843 -15.15369 -15.13995 -15.08053 -14.94418 -14.81066 -14.7258 -14.63319 -14.52988 -14.43472 -14.35868 -14.3162 -14.27607 -14.22714 -14.17327 -14.14497 -14.11783 -14.08898 -14.05862 -14.00302 -13.89603 -13.5968 -13.01556 -12.29613 -9.779496 -10.17968 -11.04767 -11.74731 -12.45807 -13.01676 -13.38614 -13.53106 -13.63347 -13.54875 -13.64929 -13.74808 -13.99678 -14.17873 -14.22228 -14.2559 -14.22717 -14.15447 -14.2799 -14.09589 -13.94303 -14.125 -13.88888 -13.98882 -13.89508 -13.96625 -13.85131 -13.92239 -13.89101 -13.89632 -13.91906 -13.92846 -13.96165 -14.0238 -14.07646 -14.13894 -14.18006 -14.1989 -14.23782 -14.1618 -14.21031 -14.15769 -14.23065 -14.22876 -14.29921 -14.39304 -14.4983 -14.59453 -14.69442 -14.84121 -14.88892 -14.91286 -14.96963 -15.04683 -15.05349 -15.10239 -15.12843 -15.15369 -15.13995 -15.08053 -14.94418 -14.81066 -14.7258 -14.63319 -14.52988 -14.43472 -14.35868 -14.3162 -14.27607 -14.22714 -14.17327 -14.14497 -14.11783 -14.08898 -14.05862 -14.00302 -13.89603 -13.5968 -13.01556 -12.29613 -9.779496 -10.17968 -11.04767 -11.74731 -12.45807 -13.01676 -13.38614 -13.53106 -13.63347 -13.54875 -13.64929 -13.74808 -13.99678 -14.17873 -14.22228 -14.2559 -14.22717 -14.15447 -14.2799 -14.09589 -13.94303 -14.125 -13.88888 -13.98882 -13.89508 -13.96625 -13.85131 -13.92239 -13.89101 -13.89632 -13.91906 -13.92846 -13.96165 -14.0238 -14.07646 -14.13894 -14.18006 -14.1989 -14.23782 -14.1618 -14.21031 -14.15769 -14.23065 -14.22876 -14.29921 -14.39304 -14.4983 -14.59453 -14.69442 -14.84121 -14.88892 -14.91286 -14.96963 -15.04683 -15.05349 -15.10239 -15.12843 -15.15369 -15.13995 -15.08053 -14.94418 -14.81066 -14.7258 -14.63319 -14.52988 -14.43472 -14.35868 -14.3162 -14.27607 -14.22714 -14.17327 -14.14497 -14.11783 -14.08898 -14.05862 -14.00302 -13.89603 -13.5968 -13.01556 -12.29613 ]
<Rescale> 400 400 
<LearnRateCoef> 0 [ 0.1703147 0.1662858 0.1640368 0.1639188 0.1626563 0.1609633 0.1591265 0.1570481 0.157183 0.1584311 0.1590866 0.1586399 0.1577977 0.1569393 0.1566197 0.1568001 0.1571419 0.1574919 0.1578906 0.1585393 0.1590682 0.159734 0.1606047 0.1614155 0.1621844 0.1626973 0.1632999 0.1636185 0.1640687 0.164453 0.1647387 0.1652064 0.1655645 0.1658966 0.1662401 0.1663964 0.1665422 0.1669482 0.1674234 0.1677311 0.1681923 0.1686018 0.168889 0.1690458 0.1691212 0.1690474 0.1687663 0.1685536 0.1682469 0.1674447 0.1668178 0.1665462 0.1658472 0.1652451 0.1659545 0.1662146 0.1667587 0.1671022 0.1675046 0.1674606 0.166842 0.1665051 0.166844 0.1670859 0.1676217 0.1681893 0.1684764 0.1684832 0.1683846 0.1686104 0.1688256 0.1687341 0.1689544 0.1690883 0.1692635 0.1695683 0.1703938 0.172589 0.1757412 0.1783363 0.1703147 0.1662858 0.1640368 0.1639188 0.1626563 0.1609633 0.1591265 0.1570481 0.157183 0.1584311 0.1590866 0.1586399 0.1577977 0.1569393 0.1566197 0.1568001 0.1571419 0.1574919 0.1578906 0.1585393 0.1590682 0.159734 0.1606047 0.1614155 0.1621844 0.1626973 0.1632999 0.1636185 0.1640687 0.164453 0.1647387 0.1652064 0.1655645 0.1658966 0.1662401 0.1663964 0.1665422 0.1669482 0.1674234 0.1677311 0.1681923 0.1686018 0.168889 0.1690458 0.1691212 0.1690474 0.1687663 0.1685536 0.1682469 0.1674447 0.1668178 0.1665462 0.1658472 0.1652451 0.1659545 0.1662146 0.1667587 0.1671022 0.1675046 0.1674606 0.166842 0.1665051 0.166844 0.1670859 0.1676217 0.1681893 0.1684764 0.1684832 0.1683846 0.1686104 0.1688256 0.1687341 0.1689544 0.1690883 0.1692635 0.1695683 0.1703938 0.172589 0.1757412 0.1783363 0.1703147 0.1662858 0.1640368 0.1639188 0.1626563 0.1609633 0.1591265 0.1570481 0.157183 0.1584311 0.1590866 0.1586399 0.1577977 0.1569393 0.1566197 0.1568001 0.1571419 0.1574919 0.1578906 0.1585393 0.1590682 0.159734 0.1606047 0.1614155 0.1621844 0.1626973 0.1632999 0.1636185 0.1640687 0.164453 0.1647387 0.1652064 0.1655645 0.1658966 0.1662401 0.1663964 0.1665422 0.1669482 0.1674234 0.1677311 0.1681923 0.1686018 0.168889 0.1690458 0.1691212 0.1690474 0.1687663 0.1685536 0.1682469 0.1674447 0.1668178 0.1665462 0.1658472 0.1652451 0.1659545 0.1662146 0.1667587 0.1671022 0.1675046 0.1674606 0.166842 0.1665051 0.166844 0.1670859 0.1676217 0.1681893 0.1684764 0.1684832 0.1683846 0.1686104 0.1688256 0.1687341 0.1689544 0.1690883 0.1692635 0.1695683 0.1703938 0.172589 0.1757412 0.1783363 0.1703147 0.1662858 0.1640368 0.1639188 0.1626563 0.1609633 0.1591265 0.1570481 0.157183 0.1584311 0.1590866 0.1586399 0.1577977 0.1569393 0.1566197 0.1568001 0.1571419 0.1574919 0.1578906 0.1585393 0.1590682 0.159734 0.1606047 0.1614155 0.1621844 0.1626973 0.1632999 0.1636185 0.1640687 0.164453 0.1647387 0.1652064 0.1655645 0.1658966 0.1662401 0.1663964 0.1665422 0.1669482 0.1674234 0.1677311 0.1681923 0.1686018 0.168889 0.1690458 0.1691212 0.1690474 0.1687663 0.1685536 0.1682469 0.1674447 0.1668178 0.1665462 0.1658472 0.1652451 0.1659545 0.1662146 0.1667587 0.1671022 0.1675046 0.1674606 0.166842 0.1665051 0.166844 0.1670859 0.1676217 0.1681893 0.1684764 0.1684832 0.1683846 0.1686104 0.1688256 0.1687341 0.1689544 0.1690883 0.1692635 0.1695683 0.1703938 0.172589 0.1757412 0.1783363 0.1703147 0.1662858 0.1640368 0.1639188 0.1626563 0.1609633 0.1591265 0.1570481 0.157183 0.1584311 0.1590866 0.1586399 0.1577977 0.1569393 0.1566197 0.1568001 0.1571419 0.1574919 0.1578906 0.1585393 0.1590682 0.159734 0.1606047 0.1614155 0.1621844 0.1626973 0.1632999 0.1636185 0.1640687 0.164453 0.1647387 0.1652064 0.1655645 0.1658966 0.1662401 0.1663964 0.1665422 0.1669482 0.1674234 0.1677311 0.1681923 0.1686018 0.168889 0.1690458 0.1691212 0.1690474 0.1687663 0.1685536 0.1682469 0.1674447 0.1668178 0.1665462 0.1658472 0.1652451 0.1659545 0.1662146 0.1667587 0.1671022 0.1675046 0.1674606 0.166842 0.1665051 0.166844 0.1670859 0.1676217 0.1681893 0.1684764 0.1684832 0.1683846 0.1686104 0.1688256 0.1687341 0.1689544 0.1690883 0.1692635 0.1695683 0.1703938 0.172589 0.1757412 0.1783363 ]
</Nnet> 
